tree
version=v4
num_class=1
num_tree_per_iteration=1
label_index=0
max_feature_idx=78
objective=binary sigmoid:1
feature_names=feature_0 feature_1 feature_2 feature_3 feature_4 feature_5 feature_6 feature_7 feature_8 feature_9 feature_10 feature_11 feature_12 feature_13 feature_14 feature_15 feature_16 feature_17 feature_18 feature_19 feature_20 feature_21 feature_22 feature_23 feature_24 feature_25 feature_26 feature_27 feature_28 feature_29 feature_30 feature_31 feature_32 feature_33 feature_34 feature_35 feature_36 feature_37 feature_38 feature_39 feature_40 feature_41 feature_42 feature_43 feature_44 feature_45 feature_46 feature_47 feature_48 feature_49 feature_50 feature_51 feature_52 feature_53 feature_54 feature_55 feature_56 feature_57 feature_58 feature_59 feature_60 feature_61 feature_62 feature_63 feature_64 feature_65 feature_66 feature_67 feature_68 feature_69 feature_70 feature_71 feature_72 feature_73 feature_74 feature_75 feature_76 feature_77 feature_78
feature_infos=none [-0.30919779036018941:4.4782887357404437] [-0.39245833615856429:4.6792333241733193] [-1.3044998327661259:0.76657733092962577] [-1.3044998327661261:0.76657733092962566] [-8.2523466586133658:4.5208630531774148] [-2.9870243043889824:1.3429612052770896] [-0.5419662179575222:2.5902875722057179] [-0.95160826332270654:2.7617850584600223] [-1.9045978830298353:0.52504521238320367] [-0.61001856184964554:1.6392943797773729] [-0.5919257339384455:1.6894011235943163] [-0.34462812710814145:2.9016784218724214] [-0.36430404923417775:2.7449598820055705] [-0.78114389093637115:1.280173872705171] [-0.09852962925667022:10.14923132812156] [-1.3700647885697677:0.78134092999861338] [-0.60548321189189513:1.8509496499834546] [-0.3541626772075484:3.3295339894811082] [-0.91252261360056719:1.4584928745889947] [-0.92195152850179962:1.5857243659278317] [-0.89516053912647731:1.6824272448516187] [-0.86988740170281709:1.6700060817808084] [-0.68315845286408639:2.0511546318694145] [-1.5642743209403971:4.3375570287042198] [-1.9803003793324736:7.5872100922499071] [-1.9569462143235044:10.110026523439574] [-1.9515715150588977:10.37226553679467] [-1.8727546780792035:7.9579435490711266] [-1.7746380817419709:6.6094756193055346] [-1.6817040462979824:9.0557693125206917] [-1.5432567218005739:13.468775150696729] [-1.7090076079375416:6.3118461094668552] [-1.3222684024647515:6.914925802369102] [-1.4539171348120958:3.564146193344937] [-0.95517128999412027:3.4974504216367786] [-0.57299444525875565:3.9467173974227778] [-0.85607037291900012:2.4406032800101674] [-0.90104797037770423:3.0842816722506243] [-1.2246163907768624:4.8975098322309618] [-0.48210791214826287:9.2936246939812097] [-0.93325000259056456:4.5646852818730475] [-1.035132721205696:5.3375021149192232] [-4.0947339322285652:2.1685805207328137] [-1.6777675740370355:4.1641376696292998] [-1.3660794494249937:2.1164983663243788] [-1.8151881382779129:1.9554325219016724] [-0.51164570864130976:13.653991892808913] [-0.66232062519817425:6.2162833377831239] [-3.2154037839500953:1.9470163986206166] [-2.6491600968845121:2.7397968185244279] [-1.3855872561952178:25.837035585842443] [-0.91788504805545024:58.112816204667212] [-1.0307029166739392:4.2445486466993616] [-0.92225578182672641:2.4283673528054033] [-1.1070751843949542:1.8038556274642255] [-0.73808939455709921:3.6425037962262161] [-0.17098977737763296:22.86783530482008] [-0.3552941024320867:12.576541571873085] [-0.62323760026826069:1.6533627667840469] [-0.36618816403834131:2.8268081554891533] [-0.18398004425947315:8.7856418764639557] [-1.3872468013880914:2.2991302611736106] [-1.0201451229216847:4.6502395125311526] [-0.67844931619767213:10.272976992607113] [-0.98460597771323521:2.9312642678086163] [-0.81911263584920513:2.0447857054140188] [-2.9204048456796468:3.6228357462861243] [-1.5113539652731582:3.0852605763468928] [-1.0864133992145624:4.9399718482593737] [-2.2491262622705523:3.2231923476612607] [-1.7242417285254259:2.3143722107030187] [-1.5233853778486406:4.9763011234432444] none none none [-0.95356185414930272:2.2521264804167083] [-0.27033928451511446:7.2200718170716325] [-0.26997226909834476:7.5862348244954614]
tree_sizes=3339 3341 3374

Tree=0
num_leaves=31
num_cat=0
split_feature=70 70 38 51 51 31 76 42 29 68 72 35 29 34 16 69 43 76 42 39 54 23 28 45 18 20 68 51 66 76
split_gain=144.834 56.7716 43.4812 36.5226 92.0644 38.8085 69.0248 44.1543 34.5877 41.9113 20.1605 40.551 21.9801 27.3981 27.8585 45.9188 31.9238 22.2389 28.7251 45.8866 67.8225 24.7903 19.4849 40.3241 20.5587 35.1292 15.4556 15.2258 36.8132 13.7858
threshold=1.3150155537173431 0.58771374130756804 2.1143402135693417 -0.058498003957302931 -0.0082586535023238487 0.64514975423754828 1.3101858590002604 -0.65464499936260334 0.11515321662675189 -0.47013509812786203 2.3573994911069245 0.86592872695435885 -0.0024147122099192541 -0.41181592345372486 -1.345724859972744 0.078474775278222483 0.13633487376130307 2.2479912251702241 0.13462812931339432 0.67485961741400613 0.29738109104877281 0.60804434063493684 1.9359619693181278 0.076352043191160193 1.356124271534328 0.29889041929411098 -1.2440377379502776 -0.2706439037653024 -0.49500780036195208 2.2511647931500849
decision_type=2 2 2 2 2 2 2 2 2 2 2 2 2 2 2 2 2 2 2 2 2 2 2 2 2 2 2 2 2 2
left_child=1 -1 3 -2 -5 7 8 -6 9 -7 12 -12 27 17 15 -15 -17 18 19 21 -21 -14 24 -24 26 -26 -9 28 -3 -29
right_child=2 10 -4 4 5 6 -8 22 -10 -11 11 -13 13 14 -16 16 -18 -19 -20 20 -22 -23 23 -25 25 -27 -28 29 -30 -31
leaf_value=-3.8644664933323933 -3.927238517170871 -3.927238517170871 -2.5598894029906489 -2.2043786333038078 -2.8465916366090878 -2.4045088218338093 -2.4547087018998637 -3.2093802322262546 -3.927238517170871 -3.637194765678097 -3.697155733534776 -2.7720642655358576 -3.8524616124891402 -3.8060810007245225 -3.7990495377164755 -2.5978713228289894 -3.6879524221893325 -2.8868641911641819 -3.7571874852042955 -2.0129497573185628 -3.6993469981408342 -2.9700941372447174 -3.927238517170871 -2.7308080422631784 -2.7308080422631784 -3.927238517170871 -3.8341828135669394 -3.8580912045526317 -2.7308080422631855 -3.3290232797170241
leaf_weight=232.58768316358328 2.423876672983174 0.6686556339263916 0.43880525976419349 0.52238721400499777 0.64776014536619442 0.45970074832439456 0.81492405384778965 0.41790977120399375 1.1074608936905859 0.68955112248659078 2.1731308102607723 0.60596916824579228 1.3373112678527825 1.6507435962557822 23.402947187423706 0.75223758816719033 0.41790977120399475 0.48059623688459385 4.1164112463593483 0.52238721400499333 0.43880525976419449 0.41790977120399464 0.54328270256519207 0.58507367968559265 0.50149172544479359 0.48059623688459396 7.5223758816718975 27.477567456662658 0.41790977120399719 0.5014917254447927
leaf_count=11131 116 32 21 25 31 22 39 20 53 33 104 29 64 79 1120 36 20 23 197 25 21 20 26 28 24 23 360 1315 20 24
internal_value=-3.82506 -3.84132 -3.54252 -3.56831 -3.50744 -3.55687 -3.24356 -3.64683 -3.52843 -3.14412 -3.759 -3.49544 -3.7707 -3.71553 -3.76327 -3.46639 -2.98719 -3.54438 -3.59063 -3.33823 -2.78283 -3.64237 -3.6984 -3.30687 -3.74791 -3.3163 -3.8013 -3.83435 -3.46707 -3.84861
internal_weight=0 297.97 17.1552 16.7164 14.2925 13.7701 3.07164 10.6985 2.25671 1.14925 65.382 2.7791 62.6029 33.5373 26.2238 2.82089 1.17015 7.31342 6.83282 2.71641 0.961192 1.75522 10.0507 1.12836 8.92237 0.982088 7.94029 29.0656 1.08657 27.9791
internal_count=15081 14260 821 800 684 659 147 512 108 55 3129 133 2996 1605 1255 135 56 350 327 130 46 84 481 54 427 47 380 1391 52 1339
is_linear=0
shrinkage=1


Tree=1
num_leaves=31
num_cat=0
split_feature=70 72 38 50 48 55 68 5 39 45 70 30 72 36 23 41 76 66 40 26 27 44 63 55 66 27 72 68 2 70
split_gain=86.5105 20.0779 23.4687 25.0476 18.5214 19.6437 16.9386 16.934 29.6101 16.0717 24.2886 15.2107 17.8224 17.4889 19.9806 17.0315 32.677 27.7853 19.7404 17.7114 20.1836 20.852 18.8677 35.9844 24.4052 22.7738 17.2347 15.5529 14.3907 13.94
threshold=0.60277780553317384 0.37664883965130014 1.2453691563074789 -0.0795841880869326 1.1336971811636027 1.0421960258872121 -0.1072386261065002 -2.9301759453672065 0.63702975654383165 1.7984171215229101 0.7645093862089819 -0.21721746578002266 0.39768470152353058 1.3063243374874396 0.78165271416737869 1.5637087800072831 2.1489855210712347 1.81432900738504 1.1118350650137538 0.021850711998437831 0.45497405429476862 1.30219419167155 0.47156330627201121 0.75800185072540027 0.4368297584166167 0.057648224069558877 2.3573994911069245 1.5332406326193162 0.87546457892440677 1.3733106080943234
decision_type=2 2 2 2 2 2 2 2 2 2 2 2 2 2 2 2 2 2 2 2 2 2 2 2 2 2 2 2 2 2
left_child=7 9 11 6 -5 -6 -4 8 -1 -2 -11 29 -13 14 15 16 19 18 -18 20 21 22 -14 25 -25 -24 28 -26 -21 -3
right_child=1 2 3 4 5 -7 -8 -9 -10 10 -12 12 13 -15 -16 -17 17 -19 -20 26 -22 -23 23 24 27 -27 -28 -29 -30 -31
leaf_value=0.046176190282805021 -0.0011253410827821355 -0.034573144496572249 0.3509627449515168 0.068000912467383032 0.93699787979230098 0.16114006625102881 0.96859205637489065 -0.04036526462293509 0.74815800917265241 0.66784122707678595 0.072993659685632623 0.73567233532230469 0.18858322272439498 -0.060181861045713873 -0.027575391819912056 0.0098490055597218826 0.655162584605676 1.1048498494061785 0.071337576800824143 -0.064970161224267367 -0.10382275764889265 -0.10448023493530022 0.51115954199719615 -0.10376250488054073 0.24211550944695823 1.2618086494947856 0.45617352013072515 0.87258455532733936 0.49725969389799191 0.19336144656505735
leaf_weight=4.0465378351509562 34.168679051101208 13.260997710749509 1.0986485257744787 4.0738454777747384 0.57673265412449815 0.75161526724696159 0.74524240009486664 221.89894278720021 0.70566642656922329 0.90640775114297811 2.8282867129892111 0.47628244571387668 3.0759480707347517 4.6581332739442578 5.2632829323410979 4.3778766281902781 1.1848583929240701 0.66088026016950596 1.1329071931540964 5.2573690246790639 1.3202387783676375 1.0278277415782211 0.81258934549987294 1.0000733043998482 0.86420243792235829 0.80412266775965691 0.89172888547182072 0.71499732509255409 0.49841562472283829 3.3637372814118853
leaf_count=201 1399 612 40 151 23 23 21 11013 35 33 109 17 123 200 212 155 39 18 32 228 53 36 32 39 31 20 27 20 17 122
internal_value=0 0.0769821 0.114026 0.282354 0.173733 0.497996 0.600589 -0.0363652 0.150415 0.0204027 0.217363 0.0899428 0.128252 0.119627 0.148622 0.187878 0.228373 0.532882 0.369793 0.172616 0.259354 0.317125 0.376715 0.514629 0.282778 0.884519 0.0470932 0.527566 -0.0162845 0.0115456
internal_weight=0 95.7959 57.8926 7.24608 5.40219 1.32835 1.84389 226.651 4.7522 37.9034 3.73469 50.6465 34.0217 33.5455 28.8873 23.624 19.2462 2.97865 2.31777 16.2675 9.62 8.29976 7.27193 4.19599 2.57927 1.61671 6.64751 1.5792 5.75578 16.6247
internal_count=15081 3832 2291 258 197 46 61 11249 236 1541 142 2033 1299 1282 1082 870 715 89 71 626 354 301 265 142 90 52 272 51 245 734
is_linear=0
shrinkage=0.1


Tree=2
num_leaves=31
num_cat=0
split_feature=70 70 64 49 29 16 47 62 48 43 20 30 26 12 30 59 29 66 72 54 72 57 47 27 46 49 18 28 71 69
split_gain=64.2764 15.9608 14.9751 26.5191 12.0578 15.0978 15.9685 26.8298 34.5576 21.4224 14.0684 20.3958 17.2072 13.8689 20.4576 20.527 13.0147 12.6748 12.0406 23.4258 10.6755 9.96545 17.5398 22.8304 9.96197 17.7384 12.2197 10.1017 9.61105 12.5564
threshold=0.34708320845874041 1.3150155537173431 4.1494323653224043 0.94068364228116963 0.038786289504807524 -0.37119830882138749 -0.11425064246867038 0.84252078354346605 1.2401875592908931 1.0000000180025095e-35 1.4066048383025651 0.28363705955722146 -0.017648961910855212 1.0000000180025095e-35 0.91555055652263995 1.3970175654539572 0.77982402457109112 2.0388688855241495 2.3573994911069245 0.43558256817137697 -0.53398919884461093 1.0640448391953716 -0.46164975808661968 -0.371981563262964 0.39557804295349025 0.78174286576065966 0.41364311196870179 2.6239298010524048 0.21518608248348695 0.49415312157943503
decision_type=2 2 2 2 2 2 2 2 2 2 2 2 2 2 2 2 2 2 2 2 2 2 2 2 2 2 2 2 2 2
left_child=-1 2 4 -4 18 6 7 10 -9 -10 12 -12 16 17 15 -15 -6 24 -2 -20 -17 28 -23 -24 25 -7 27 -26 -3 -30
right_child=1 21 3 -5 5 13 -8 8 9 -11 11 -13 -14 14 -16 20 -18 -19 19 -21 -22 22 23 -25 26 -27 -28 -29 29 -31
leaf_value=-0.043560824782448417 -0.018941171674627305 0.024789663054663458 0.81498485370052931 -0.10303123403352372 0.3413251577038991 -0.061053479604450289 0.024143379735042918 1.044184705441094 0.66137767912836942 -0.01832612592487055 0.9374997626043321 0.06258734428343242 -0.10294801870701056 0.59799984125015393 0.71911219229029089 0.31146457359071822 -0.10310245499397395 0.50196118401562118 0.55878126602300149 -0.10371366871600174 -0.07153647917407574 0.64104989980133653 0.51617386392166131 -0.10697393900931058 0.020178995149470837 0.58340657367459603 0.46741058725257711 0.46869892366653843 0.18598542142049182 -0.064679593867205051
leaf_weight=179.5864050462842 51.461942737922072 12.242110617458826 0.65173521079122909 0.60843893885612488 2.4400925096124424 21.542912613600496 7.7973726093769065 0.78302694298327002 0.77802789025008667 1.1477020457386968 0.48047942109405972 0.59814601764082909 3.2061645872890958 0.71326178498566051 0.60653631947934616 0.9458388965576886 0.90267290733754624 0.49648189172148605 1.0543167125433677 1.0809746067970989 3.1564521342515945 0.93329248204827342 0.95512758940458375 1.5293389223515972 12.183167813345785 0.43573121540248294 0.70145173370838243 0.52373606711626131 12.204468181356786 2.3896692693233481
leaf_count=9242 2442 373 22 24 65 958 310 28 18 36 20 23 141 29 24 21 38 23 28 38 134 17 15 51 532 16 29 19 289 76
internal_value=0 0.0460258 0.02893 0.371747 0.0251081 0.0561222 0.132187 0.213691 0.484046 0.256286 0.117681 0.452322 0.0625642 0.0227289 0.171796 0.102859 0.221313 0.000204492 -0.00928647 0.223398 0.0167696 0.110612 0.271435 0.132589 -0.00683519 -0.0482769 0.0610951 0.0386655 0.0901306 0.144941
internal_weight=0 144.551 114.297 1.26017 113.036 59.4393 18.1337 10.3363 2.70876 1.92573 7.62756 1.07863 6.54893 41.3056 5.42209 4.81555 3.34277 35.8835 53.5972 2.13529 4.10229 30.254 3.41776 2.48447 35.387 21.9786 13.4084 12.7069 26.8362 14.5941
internal_count=15081 5839 5018 46 4972 2464 679 369 82 54 287 43 244 1785 208 184 103 1577 2508 66 155 821 83 66 1554 974 580 551 738 365
is_linear=0
shrinkage=0.1


end of trees

feature_importances:
feature_70=7
feature_72=6
feature_29=4
feature_66=4
feature_68=4
feature_76=4
feature_27=3
feature_30=3
feature_51=3
feature_16=2
feature_18=2
feature_20=2
feature_23=2
feature_26=2
feature_28=2
feature_38=2
feature_39=2
feature_42=2
feature_43=2
feature_45=2
feature_47=2
feature_48=2
feature_49=2
feature_54=2
feature_55=2
feature_69=2
feature_2=1
feature_5=1
feature_12=1
feature_31=1
feature_34=1
feature_35=1
feature_36=1
feature_40=1
feature_41=1
feature_44=1
feature_46=1
feature_50=1
feature_57=1
feature_59=1
feature_62=1
feature_63=1
feature_64=1
feature_71=1

parameters:
[boosting: gbdt]
[objective: binary]
[metric: auc]
[tree_learner: serial]
[device_type: cpu]
[data_sample_strategy: bagging]
[data: ]
[valid: ]
[num_iterations: 100]
[learning_rate: 0.1]
[num_leaves: 31]
[num_threads: 0]
[seed: 0]
[deterministic: 0]
[force_col_wise: 0]
[force_row_wise: 0]
[histogram_pool_size: -1]
[max_depth: -1]
[min_data_in_leaf: 20]
[min_sum_hessian_in_leaf: 0.001]
[bagging_fraction: 1]
[pos_bagging_fraction: 1]
[neg_bagging_fraction: 1]
[bagging_freq: 0]
[bagging_seed: 3]
[feature_fraction: 1]
[feature_fraction_bynode: 1]
[feature_fraction_seed: 2]
[extra_trees: 0]
[extra_seed: 6]
[early_stopping_round: 0]
[first_metric_only: 0]
[max_delta_step: 0]
[lambda_l1: 0]
[lambda_l2: 0]
[linear_lambda: 0]
[min_gain_to_split: 0]
[drop_rate: 0.1]
[max_drop: 50]
[skip_drop: 0.5]
[xgboost_dart_mode: 0]
[uniform_drop: 0]
[drop_seed: 4]
[top_rate: 0.2]
[other_rate: 0.1]
[min_data_per_group: 100]
[max_cat_threshold: 32]
[cat_l2: 10]
[cat_smooth: 10]
[max_cat_to_onehot: 4]
[top_k: 20]
[monotone_constraints: ]
[monotone_constraints_method: basic]
[monotone_penalty: 0]
[feature_contri: ]
[forcedsplits_filename: ]
[refit_decay_rate: 0.9]
[cegb_tradeoff: 1]
[cegb_penalty_split: 0]
[cegb_penalty_feature_lazy: ]
[cegb_penalty_feature_coupled: ]
[path_smooth: 0]
[interaction_constraints: ]
[verbosity: -1]
[saved_feature_importance_type: 0]
[use_quantized_grad: 0]
[num_grad_quant_bins: 4]
[quant_train_renew_leaf: 0]
[stochastic_rounding: 1]
[linear_tree: 0]
[max_bin: 255]
[max_bin_by_feature: ]
[min_data_in_bin: 3]
[bin_construct_sample_cnt: 200000]
[data_random_seed: 1]
[is_enable_sparse: 1]
[enable_bundle: 1]
[use_missing: 1]
[zero_as_missing: 0]
[feature_pre_filter: 1]
[pre_partition: 0]
[two_round: 0]
[header: 0]
[label_column: ]
[weight_column: ]
[group_column: ]
[ignore_column: ]
[categorical_feature: ]
[forcedbins_filename: ]
[precise_float_parser: 0]
[parser_config_file: ]
[objective_seed: 5]
[num_class: 1]
[is_unbalance: 0]
[scale_pos_weight: 1]
[sigmoid: 1]
[boost_from_average: 1]
[reg_sqrt: 0]
[alpha: 0.9]
[fair_c: 1]
[poisson_max_delta_step: 0.7]
[tweedie_variance_power: 1.5]
[lambdarank_truncation_level: 30]
[lambdarank_norm: 1]
[label_gain: ]
[lambdarank_position_bias_regularization: 0]
[eval_at: ]
[multi_error_top_k: 1]
[auc_mu_weights: ]
[num_machines: 1]
[local_listen_port: 12400]
[time_out: 120]
[machine_list_filename: ]
[machines: ]
[gpu_platform_id: -1]
[gpu_device_id: -1]
[gpu_use_dp: 0]
[num_gpu: 1]

end of parameters

pandas_categorical:[]
